digraph Tree {
node [shape=box, style="rounded", color="black", fontname=helvetica] ;
edge [fontname=helvetica] ;
0 [label="V10 <= -5.3\ngini = 0.0\nsamples = 14417\nvalue = [22748, 36]"] ;
1 [label="V23 <= 1.8\ngini = 0.1\nsamples = 17\nvalue = [2, 27]"] ;
0 -> 1 [labeldistance=2.5, labelangle=45, headlabel="True"] ;
2 [label="gini = 0.0\nsamples = 16\nvalue = [0, 27]"] ;
1 -> 2 ;
3 [label="gini = 0.0\nsamples = 1\nvalue = [2, 0]"] ;
1 -> 3 ;
4 [label="V3 <= -3.8\ngini = 0.0\nsamples = 14400\nvalue = [22746, 9]"] ;
0 -> 4 [labeldistance=2.5, labelangle=-45, headlabel="False"] ;
5 [label="V26 <= -1.0\ngini = 0.1\nsamples = 148\nvalue = [227, 7]"] ;
4 -> 5 ;
6 [label="gini = 0.0\nsamples = 1\nvalue = [0, 2]"] ;
5 -> 6 ;
7 [label="V18 <= -1.2\ngini = 0.0\nsamples = 147\nvalue = [227, 5]"] ;
5 -> 7 ;
8 [label="V17 <= -3.4\ngini = 0.3\nsamples = 13\nvalue = [17, 3]"] ;
7 -> 8 ;
9 [label="gini = 0.0\nsamples = 2\nvalue = [0, 3]"] ;
8 -> 9 ;
10 [label="gini = 0.0\nsamples = 11\nvalue = [17, 0]"] ;
8 -> 10 ;
11 [label="V25 <= 1.3\ngini = 0.0\nsamples = 134\nvalue = [210, 2]"] ;
7 -> 11 ;
12 [label="V26 <= 0.8\ngini = 0.0\nsamples = 127\nvalue = [199, 1]"] ;
11 -> 12 ;
13 [label="gini = 0.0\nsamples = 117\nvalue = [186, 0]"] ;
12 -> 13 ;
14 [label="V2 <= -0.4\ngini = 0.1\nsamples = 10\nvalue = [13, 1]"] ;
12 -> 14 ;
15 [label="gini = 0.0\nsamples = 8\nvalue = [12, 0]"] ;
14 -> 15 ;
16 [label="V24 <= 0.7\ngini = 0.5\nsamples = 2\nvalue = [1, 1]"] ;
14 -> 16 ;
17 [label="gini = 0.0\nsamples = 1\nvalue = [0, 1]"] ;
16 -> 17 ;
18 [label="gini = 0.0\nsamples = 1\nvalue = [1, 0]"] ;
16 -> 18 ;
19 [label="V7 <= 1.1\ngini = 0.2\nsamples = 7\nvalue = [11, 1]"] ;
11 -> 19 ;
20 [label="gini = 0.0\nsamples = 6\nvalue = [11, 0]"] ;
19 -> 20 ;
21 [label="gini = 0.0\nsamples = 1\nvalue = [0, 1]"] ;
19 -> 21 ;
22 [label="V14 <= -6.0\ngini = 0.0\nsamples = 14252\nvalue = [22519, 2]"] ;
4 -> 22 ;
23 [label="gini = 0.0\nsamples = 1\nvalue = [0, 1]"] ;
22 -> 23 ;
24 [label="V12 <= -4.4\ngini = 0.0\nsamples = 14251\nvalue = [22519, 1]"] ;
22 -> 24 ;
25 [label="V15 <= 1.4\ngini = 0.3\nsamples = 4\nvalue = [4, 1]"] ;
24 -> 25 ;
26 [label="gini = 0.0\nsamples = 3\nvalue = [4, 0]"] ;
25 -> 26 ;
27 [label="gini = 0.0\nsamples = 1\nvalue = [0, 1]"] ;
25 -> 27 ;
28 [label="gini = 0.0\nsamples = 14247\nvalue = [22515, 0]"] ;
24 -> 28 ;
}